33.25 172.772
47.5 172.772
4.75 172.772
19 172.772
66.5 148.09
52.25 148.09
38 148.09
23.75 148.09
109.25 123.409
95 123.409
125.875 123.409
114 139.863
97.375 156.318
85.5 143.154
79.5625 162.488
63.65 171.127
123.5 98.7269
109.25 98.7269
144.875 102.841
137.75 115.181
95 98.7269
80.75 98.7269
66.5 98.7269
52.25 98.7269
80.75 123.409
66.5 123.409
52.25 123.409
38 123.409
23.75 123.409
9.5 123.409
38 98.7269
23.75 98.7269
172.188 59.6475
155.8 67.4634
163.875 82.2724
146.3 90.4997
137.75 74.0452
123.5 74.0452
109.25 74.0452
95 74.0452
80.75 74.0452
66.5 74.0452
52.25 74.0452
38 74.0452
23.75 74.0452
9.5 74.0452
9.5 98.7269
-4.75 98.7269
181.688 22.6249
171 41.1362
152 49.3634
137.75 49.3634
123.5 49.3634
109.25 49.3634
95 49.3634
80.75 49.3634
66.5 49.3634
52.25 49.3634
38 49.3634
23.75 49.3634
52.25 24.6817
38 24.6817
23.75 24.6817
9.5 24.6817
166.25 24.6817
152 24.6817
137.75 24.6817
123.5 24.6817
109.25 24.6817
95 24.6817
80.75 24.6817
66.5 24.6817
180.5 0
166.25 0
152 0
137.75 0
123.5 0
109.25 0
95 0
80.75 0
52.25 -123.409
38 -123.409
23.75 -123.409
9.5 -123.409
38 -148.09
23.75 -148.09
9.5 -148.09
-4.75 -148.09
79.5625 -162.488
63.65 -171.127
66.5 -148.09
52.25 -148.09
33.25 -172.772
47.5 -172.772
4.75 -172.772
19 -172.772
52.25 -74.0452
38 -74.0452
66.5 -49.3634
52.25 -49.3634
38 -98.7269
23.75 -98.7269
23.75 -74.0452
9.5 -74.0452
163.875 -82.2724
146.3 -90.4997
137.75 -74.0452
123.5 -74.0452
109.25 -74.0452
95 -74.0452
80.75 -74.0452
66.5 -74.0452
144.875 -102.841
137.75 -115.181
123.5 -98.7269
109.25 -98.7269
95 -98.7269
80.75 -98.7269
66.5 -98.7269
52.25 -98.7269
125.875 -123.409
114 -139.863
109.25 -123.409
95 -123.409
97.375 -156.318
85.5 -143.154
80.75 -123.409
66.5 -123.409
66.5 0
52.25 0
38 0
23.75 0
23.75 -24.6817
9.5 -24.6817
9.5 0
-4.75 0
80.75 -24.6817
66.5 -24.6817
52.25 -24.6817
38 -24.6817
38 -49.3634
23.75 -49.3634
9.5 -49.3634
-4.75 -49.3634
181.688 -22.6249
171 -41.1362
166.25 -24.6817
152 -24.6817
137.75 -24.6817
123.5 -24.6817
109.25 -24.6817
95 -24.6817
172.188 -59.6475
155.8 -67.4634
152 -49.3634
137.75 -49.3634
123.5 -49.3634
109.25 -49.3634
95 -49.3634
80.75 -49.3634
-52.25 -172.772
-38 -172.772
-23.75 -172.772
-9.5 -172.772
-47.5 -148.09
-61.75 -148.09
-19 -148.09
-33.25 -148.09
-90.25 -123.409
-104.5 -123.409
-115.188 -137.806
-122.55 -121.763
-78.375 -143.977
-99.75 -148.09
-68.875 -168.658
-85.5 -159.608
-104.5 -98.7269
-118.75 -98.7269
-133 -98.7269
-140.6 -116.827
-76 -98.7269
-90.25 -98.7269
-47.5 -98.7269
-61.75 -98.7269
-61.75 -123.409
-76 -123.409
-33.25 -123.409
-47.5 -123.409
-19 -98.7269
-33.25 -98.7269
-4.75 -123.409
-19 -123.409
-154.375 -69.9316
-170.05 -69.1088
-147.25 -82.2724
-153.9 -97.0814
-118.75 -74.0452
-133 -74.0452
-90.25 -74.0452
-104.5 -74.0452
-61.75 -74.0452
-76 -74.0452
-33.25 -74.0452
-47.5 -74.0452
-4.75 -74.0452
-19 -74.0452
9.5 -98.7269
-4.75 -98.7269
-161.5 -49.3634
-177.65 -39.4908
-133 -49.3634
-147.25 -49.3634
-104.5 -49.3634
-118.75 -49.3634
-76 -49.3634
-90.25 -49.3634
-47.5 -49.3634
-61.75 -49.3634
-19 -49.3634
-33.25 -49.3634
-33.25 -24.6817
-47.5 -24.6817
-4.75 -24.6817
-19 -24.6817
-147.25 -24.6817
-161.5 -24.6817
-118.75 -24.6817
-133 -24.6817
-90.25 -24.6817
-104.5 -24.6817
-61.75 -24.6817
-76 -24.6817
-161.5 0
-176.7 18.0999
-174.562 -18.5113
-181.45 -3.2909
-133 0
-147.25 0
-104.5 0
-118.75 0
-33.25 123.409
-47.5 123.409
-4.75 123.409
-19 123.409
-19 148.09
-33.25 148.09
9.5 148.09
-4.75 148.09
-68.875 168.658
-85.5 159.608
-47.5 148.09
-61.75 148.09
-52.25 172.772
-38 172.772
-23.75 172.772
-9.5 172.772
-33.25 74.0452
-47.5 74.0452
-47.5 49.3634
-61.75 49.3634
-19 98.7269
-33.25 98.7269
-4.75 74.0452
-19 74.0452
-147.25 82.2724
-153.9 97.0814
-118.75 74.0452
-133 74.0452
-90.25 74.0452
-104.5 74.0452
-61.75 74.0452
-76 74.0452
-133 98.7269
-140.6 116.827
-104.5 98.7269
-118.75 98.7269
-76 98.7269
-90.25 98.7269
-47.5 98.7269
-61.75 98.7269
-115.188 137.806
-122.55 121.763
-90.25 123.409
-104.5 123.409
-78.375 143.977
-99.75 148.09
-61.75 123.409
-76 123.409
-76 0
-90.25 0
-47.5 0
-61.75 0
-19 0
-33.25 0
-4.75 24.6817
-19 24.6817
-61.75 24.6817
-76 24.6817
-33.25 24.6817
-47.5 24.6817
-19 49.3634
-33.25 49.3634
9.5 49.3634
-4.75 49.3634
-161.5 49.3634
-177.65 39.4908
-147.25 24.6817
-161.5 24.6817
-118.75 24.6817
-133 24.6817
-90.25 24.6817
-104.5 24.6817
-154.375 69.9316
-170.05 69.1088
-133 49.3634
-147.25 49.3634
-104.5 49.3634
-118.75 49.3634
-76 49.3634
-90.25 49.3634
